{
    "epochs": [
        1,
        2,
        3,
        4,
        5,
        6,
        7,
        8,
        9,
        10,
        11,
        12,
        13,
        14,
        15,
        16,
        17,
        18,
        19,
        20,
        21,
        22,
        23,
        24,
        25,
        26
    ],
    "mean_weights": [
        -0.01738755591213703,
        -0.022515978664159775,
        -0.024439023807644844,
        -0.025075461715459824,
        -0.02473025768995285,
        -0.02436700090765953,
        -0.025379803031682968,
        -0.024216577410697937,
        -0.02460865117609501,
        -0.025001011788845062,
        -0.024690914899110794,
        -0.024958530440926552,
        -0.023951422423124313,
        -0.024707496166229248,
        -0.02410515584051609,
        -0.024254992604255676,
        -0.02411280758678913,
        -0.024228977039456367,
        -0.023993350565433502,
        -0.023999987170100212,
        -0.023753592744469643,
        -0.023695893585681915,
        -0.023702505975961685,
        -0.023698925971984863,
        -0.023727236315608025,
        -0.023695679381489754
    ],
    "std_weights": [
        0.09498291462659836,
        0.11174211651086807,
        0.12343864887952805,
        0.13073785603046417,
        0.13755109906196594,
        0.14374187588691711,
        0.14734512567520142,
        0.1515006422996521,
        0.1544008105993271,
        0.15656758844852448,
        0.15879394114017487,
        0.16107745468616486,
        0.16293983161449432,
        0.16387593746185303,
        0.1651873141527176,
        0.16604408621788025,
        0.1668064147233963,
        0.16772310435771942,
        0.168280690908432,
        0.16883815824985504,
        0.16923075914382935,
        0.16942092776298523,
        0.1696736365556717,
        0.1698436439037323,
        0.17006513476371765,
        0.1701953411102295
    ]
}