{
    "epochs": [
        1,
        2,
        3,
        4,
        5,
        6,
        7,
        8,
        9,
        10,
        11,
        12,
        13,
        14,
        15,
        16,
        17,
        18,
        19,
        20,
        21,
        22,
        23,
        24,
        25,
        26
    ],
    "mean_weights": [
        -0.009769667871296406,
        -0.009769666939973831,
        -0.009769667871296406,
        -0.009769674390554428,
        -0.009769672527909279,
        -0.009769673459231853,
        -0.009769671596586704,
        -0.009769671596586704,
        -0.00976966880261898,
        -0.009769666939973831,
        -0.009769671596586704,
        -0.009769674390554428,
        -0.009769669733941555,
        -0.009769669733941555,
        -0.009769665077328682,
        -0.009769664146006107,
        -0.009769659489393234,
        -0.00976965669542551,
        -0.00976965669542551,
        -0.00976965855807066,
        -0.009769661352038383,
        -0.009769661352038383,
        -0.009769662283360958,
        -0.009769666008651257,
        -0.009769666008651257,
        -0.009769666008651257
    ],
    "std_weights": [
        0.1354520618915558,
        0.1459498107433319,
        0.15104460716247559,
        0.15542319416999817,
        0.15996110439300537,
        0.16359026730060577,
        0.16604068875312805,
        0.16965419054031372,
        0.17143499851226807,
        0.17474612593650818,
        0.176447793841362,
        0.17914877831935883,
        0.18124324083328247,
        0.1825166642665863,
        0.1839599609375,
        0.18507017195224762,
        0.1861179769039154,
        0.1873360127210617,
        0.18822647631168365,
        0.18911877274513245,
        0.18972039222717285,
        0.1900763064622879,
        0.19038482010364532,
        0.19073650240898132,
        0.19109787046909332,
        0.19137297570705414
    ]
}